//
//    // !!! This file is generated using emlearn !!!
//
//#include "eml_trees.h"
//    
//
//EmlTreesNode sonar_nodes[488] = {
//  { 186, 100.80500030517578, 1, 23 },
//  { 348, 100.79500198364258, 2, 18 },
//  { 250, 100.76499938964844, 3, 9 },
//  { 371, 14673.5, 4, 7 },
//  { 363, 10015.5, 5, 6 },
//  { -1, 2, -1, -1 },
//  { -1, 1, -1, -1 },
//  { 216, 100.72000122070312, 8, 5 },
//  { 225, 17146.0, 6, 5 },
//  { 0, 100.79500198364258, 10, 15 },
//  { 273, 6466.0, 11, 12 },
//  { 3, 11200.5, 12, 13 },
//  { -1, 0, -1, -1 },
//  { 129, 8142.0, 5, 14 },
//  { 173, 8004.5, 12, 6 },
//  { 3, 12373.0, 16, 17 },
//  { 325, 12169.0, 12, 6 },
//  { 222, 100.77999877929688, 6, 5 },
//  { 152, 100.80500030517578, 19, 12 },
//  { 273, 31261.0, 20, 6 },
//  { 293, 3368.0, 12, 21 },
//  { 378, 100.79500198364258, 22, 5 },
//  { 357, 14000.0, 12, 5 },
//  { 282, 100.80500030517578, 24, 25 },
//  { 47, 10937.0, 6, 5 },
//  { 166, 100.80500030517578, 5, 6 },
//  { 312, 100.80500030517578, 27, 51 },
//  { 334, 100.79500198364258, 28, 46 },
//  { 390, 100.77499771118164, 29, 37 },
//  { 271, 16490.0, 30, 34 },
//  { 361, 10209.0, 5, 31 },
//  { 217, 18661.0, 32, 5 },
//  { 285, 15466.5, 6, 33 },
//  { 165, 15248.5, 5, 6 },
//  { 101, 17414.0, 35, 5 },
//  { 339, 20951.0, 6, 36 },
//  { 290, 100.77499771118164, 12, 5 },
//  { 42, 100.79500198364258, 38, 43 },
//  { 182, 100.75, 39, 40 },
//  { 32, 100.72500228881836, 6, 5 },
//  { 213, 6783.5, 41, 12 },
//  { 381, 14869.0, 42, 5 },
//  { 187, 7353.5, 12, 6 },
//  { 246, 100.79500198364258, 44, 45 },
//  { 138, 100.79500198364258, 12, 6 },
//  { 156, 100.80500030517578, 5, 6 },
//  { 285, 2125.5, 6, 47 },
//  { 103, 8884.0, 48, 5 },
//  { 47, 9720.5, 49, 12 },
//  { 287, 6218.0, 50, 5 },
//  { 155, 3599.5, 5, 12 },
//  { 172, 100.80500030517578, 52, 6 },
//  { 136, 100.78000259399414, 6, 5 },
//  { 302, 100.79500198364258, 54, 64 },
//  { 386, 100.77499771118164, 55, 60 },
//  { 255, 15687.5, 56, 57 },
//  { 369, 9280.0, 5, 6 },
//  { 398, 100.70000076293945, 6, 58 },
//  { 101, 20664.0, 59, 6 },
//  { 382, 100.76499938964844, 5, 12 },
//  { 182, 100.75, 6, 61 },
//  { 184, 100.79500198364258, 12, 62 },
//  { 13, 13674.5, 63, 5 },
//  { 16, 100.80500030517578, 12, 6 },
//  { 188, 100.80500030517578, 65, 71 },
//  { 192, 100.78499984741211, 6, 66 },
//  { 9, 2213.5, 12, 67 },
//  { 84, 100.80500030517578, 68, 70 },
//  { 131, 8076.0, 69, 5 },
//  { 97, 7975.5, 5, 12 },
//  { 25, 21360.0, 5, 12 },
//  { 172, 100.80500030517578, 5, 72 },
//  { 276, 100.80500030517578, 73, 6 },
//  { 3, 9912.0, 6, 5 },
//  { 186, 100.80500030517578, 75, 93 },
//  { 244, 100.79500198364258, 76, 91 },
//  { 268, 100.76499938964844, 77, 82 },
//  { 213, 15429.0, 78, 80 },
//  { 219, 11424.5, 79, 6 },
//  { 19, 13022.5, 6, 5 },
//  { 372, 100.71500015258789, 6, 81 },
//  { 80, 100.79500198364258, 5, 6 },
//  { 352, 100.79500198364258, 83, 88 },
//  { 358, 100.7599983215332, 5, 84 },
//  { 299, 30660.0, 85, 87 },
//  { 363, 14884.5, 12, 86 },
//  { 249, 8050.5, 5, 12 },
//  { 6, 100.79000091552734, 12, 6 },
//  { 204, 100.78499984741211, 6, 89 },
//  { 181, 3627.5, 12, 90 },
//  { 316, 100.79500198364258, 12, 5 },
//  { 311, 5503.0, 92, 5 },
//  { 367, 3127.0, 5, 12 },
//  { 166, 100.80500030517578, 5, 94 },
//  { 302, 100.80500030517578, 95, 6 },
//  { 11, 11386.0, 6, 5 },
//  { 324, 100.80500030517578, 97, 6 },
//  { 320, 100.79500198364258, 98, 114 },
//  { 258, 100.76499938964844, 99, 105 },
//  { 221, 16517.0, 100, 102 },
//  { 231, 16456.0, 101, 12 },
//  { 271, 9568.5, 5, 6 },
//  { 89, 27133.0, 103, 6 },
//  { 372, 100.71500015258789, 104, 5 },
//  { 291, 16381.0, 6, 5 },
//  { 34, 100.79500198364258, 106, 109 },
//  { 376, 100.7599983215332, 5, 107 },
//  { 273, 6153.5, 108, 12 },
//  { 21, 11785.5, 12, 6 },
//  { 394, 100.78499984741211, 110, 112 },
//  { 285, 19099.5, 6, 111 },
//  { 26, 100.80500030517578, 5, 6 },
//  { 37, 13775.0, 113, 5 },
//  { 352, 100.79500198364258, 12, 5 },
//  { 131, 4645.0, 115, 116 },
//  { 156, 100.80500030517578, 12, 6 },
//  { 107, 4852.0, 6, 117 },
//  { 87, 25919.0, 5, 118 },
//  { 217, 20269.0, 12, 5 },
//  { 378, 100.80500030517578, 120, 141 },
//  { 368, 100.79500198364258, 121, 135 },
//  { 396, 100.77499771118164, 122, 128 },
//  { 257, 15687.5, 123, 124 },
//  { 394, 100.75500106811523, 6, 5 },
//  { 294, 100.71500015258789, 6, 125 },
//  { 301, 24697.0, 126, 127 },
//  { 7, 26144.0, 5, 6 },
//  { 261, 25725.0, 12, 6 },
//  { 190, 100.79500198364258, 129, 133 },
//  { 72, 100.7400016784668, 6, 130 },
//  { 3, 11200.5, 12, 131 },
//  { 215, 6404.0, 5, 132 },
//  { 209, 6938.5, 6, 12 },
//  { 53, 15004.0, 134, 5 },
//  { 361, 10810.5, 12, 6 },
//  { 359, 29868.0, 136, 140 },
//  { 93, 25919.0, 137, 139 },
//  { 310, 100.79500198364258, 138, 5 },
//  { 257, 8868.5, 12, 5 },
//  { 74, 100.80500030517578, 5, 12 },
//  { 209, 8974.5, 6, 5 },
//  { 292, 100.80500030517578, 142, 6 },
//  { 227, 14955.5, 6, 5 },
//  { 268, 100.80500030517578, 144, 166 },
//  { 288, 100.79500198364258, 145, 160 },
//  { 182, 100.76499938964844, 146, 152 },
//  { 217, 16568.0, 147, 5 },
//  { 240, 100.74499893188477, 148, 150 },
//  { 320, 100.75, 6, 149 },
//  { 71, 16561.0, 6, 5 },
//  { 224, 100.75500106811523, 5, 151 },
//  { 187, 14747.0, 6, 12 },
//  { 24, 100.79500198364258, 153, 157 },
//  { 330, 100.79500198364258, 154, 5 },
//  { 205, 7446.5, 155, 12 },
//  { 1, 11199.5, 12, 156 },
//  { 39, 11082.5, 5, 6 },
//  { 2, 100.79500198364258, 12, 158 },
//  { 20, 100.80500030517578, 159, 6 },
//  { 124, 100.78499984741211, 6, 5 },
//  { 161, 3114.0, 161, 162 },
//  { 305, 1405.0, 12, 6 },
//  { 35, 24214.0, 163, 165 },
//  { 333, 21814.0, 5, 164 },
//  { 325, 21889.0, 12, 5 },
//  { 241, 21895.0, 12, 5 },
//  { 172, 100.80500030517578, 167, 6 },
//  { 208, 100.79000091552734, 6, 5 },
//  { 172, 100.80500030517578, 169, 187 },
//  { 354, 100.79500198364258, 170, 184 },
//  { 396, 100.76499938964844, 171, 177 },
//  { 219, 17779.0, 172, 175 },
//  { 365, 16234.5, 173, 5 },
//  { 303, 12003.5, 174, 6 },
//  { 351, 12405.5, 6, 5 },
//  { 259, 15625.5, 176, 5 },
//  { 329, 15468.0, 6, 5 },
//  { 264, 100.79500198364258, 178, 182 },
//  { 240, 100.75500106811523, 179, 180 },
//  { 130, 100.72500228881836, 6, 5 },
//  { 26, 100.79500198364258, 12, 181 },
//  { 386, 100.78499984741211, 6, 12 },
//  { 99, 16473.0, 5, 183 },
//  { 188, 100.79500198364258, 12, 5 },
//  { 56, 100.7249984741211, 6, 185 },
//  { 339, 3061.0, 12, 186 },
//  { 144, 100.80500030517578, 5, 12 },
//  { 282, 100.80500030517578, 188, 6 },
//  { 55, 9422.5, 6, 5 },
//  { 162, 100.80500030517578, 190, 211 },
//  { 14, 100.79500198364258, 191, 203 },
//  { 136, 100.75500106811523, 192, 196 },
//  { 74, 100.72500228881836, 6, 193 },
//  { 27, 13747.0, 194, 195 },
//  { 150, 100.74499893188477, 6, 5 },
//  { 68, 100.75500106811523, 5, 6 },
//  { 354, 100.79500198364258, 197, 5 },
//  { 342, 100.75500106811523, 198, 199 },
//  { 69, 20121.0, 5, 6 },
//  { 45, 11852.0, 200, 202 },
//  { 365, 14869.0, 12, 201 },
//  { 377, 15899.5, 5, 12 },
//  { 195, 8858.5, 6, 12 },
//  { 286, 100.75500106811523, 6, 204 },
//  { 219, 3674.0, 12, 205 },
//  { 384, 100.79500198364258, 206, 209 },
//  { 277, 17229.5, 207, 5 },
//  { 175, 10104.5, 208, 12 },
//  { 31, 11874.0, 6, 5 },
//  { 138, 100.80500030517578, 5, 210 },
//  { 109, 23517.0, 5, 12 },
//  { 126, 100.80500030517578, 212, 213 },
//  { 119, 10015.0, 6, 5 },
//  { 226, 100.80500030517578, 214, 6 },
//  { 156, 100.81499862670898, 6, 5 },
//  { 354, 100.80500030517578, 216, 232 },
//  { 348, 100.79500198364258, 217, 228 },
//  { 380, 100.77499771118164, 218, 223 },
//  { 350, 100.72000122070312, 219, 221 },
//  { 185, 17985.0, 6, 220 },
//  { 344, 100.71500015258789, 5, 6 },
//  { 110, 100.79000091552734, 222, 6 },
//  { 39, 22716.0, 5, 6 },
//  { 4, 100.79500198364258, 224, 226 },
//  { 363, 15217.5, 12, 225 },
//  { 251, 8138.5, 5, 12 },
//  { 19, 11108.0, 227, 5 },
//  { 18, 100.80500030517578, 12, 6 },
//  { 219, 3273.0, 229, 230 },
//  { 136, 100.80500030517578, 12, 6 },
//  { 81, 25981.0, 5, 231 },
//  { 385, 19146.0, 12, 5 },
//  { 360, 100.80500030517578, 5, 233 },
//  { 166, 100.80500030517578, 234, 6 },
//  { 303, 28097.0, 5, 6 },
//  { 16, 100.80500030517578, 236, 252 },
//  { 358, 100.79500198364258, 237, 246 },
//  { 270, 100.76499938964844, 238, 242 },
//  { 149, 19250.0, 239, 5 },
//  { 332, 100.72500228881836, 6, 240 },
//  { 95, 15334.5, 6, 241 },
//  { 6, 100.75500106811523, 5, 12 },
//  { 192, 100.79500198364258, 243, 245 },
//  { 95, 9794.0, 12, 244 },
//  { 161, 8191.5, 6, 12 },
//  { 307, 9466.5, 12, 5 },
//  { 371, 30903.0, 247, 6 },
//  { 261, 3705.5, 248, 249 },
//  { 144, 100.79500198364258, 5, 12 },
//  { 95, 25732.0, 250, 12 },
//  { 85, 8968.5, 251, 5 },
//  { 11, 10485.5, 5, 12 },
//  { 260, 100.80500030517578, 253, 6 },
//  { 361, 19351.0, 254, 5 },
//  { 352, 100.79500198364258, 6, 5 },
//  { 8, 100.80500030517578, 256, 279 },
//  { 324, 100.79500198364258, 257, 272 },
//  { 282, 100.76499938964844, 258, 262 },
//  { 291, 17506.0, 259, 5 },
//  { 362, 100.75500106811523, 260, 261 },
//  { 225, 19165.0, 6, 5 },
//  { 374, 100.78999710083008, 5, 6 },
//  { 196, 100.79500198364258, 263, 271 },
//  { 182, 100.75499725341797, 264, 265 },
//  { 310, 100.78499984741211, 5, 6 },
//  { 236, 100.77499771118164, 266, 267 },
//  { 72, 100.78499984741211, 12, 5 },
//  { 273, 6153.5, 268, 12 },
//  { 3, 11200.5, 12, 269 },
//  { 387, 10781.5, 270, 5 },
//  { 141, 8396.5, 6, 12 },
//  { 60, 100.79500198364258, 12, 5 },
//  { 96, 100.78499984741211, 6, 273 },
//  { 347, 1269.0, 12, 274 },
//  { 79, 25981.0, 275, 12 },
//  { 57, 9679.5, 276, 5 },
//  { 107, 7877.0, 277, 12 },
//  { 215, 3674.0, 278, 5 },
//  { 345, 2233.0, 5, 12 },
//  { 302, 100.80500030517578, 280, 6 },
//  { 311, 17809.0, 281, 282 },
//  { 213, 19569.0, 6, 5 },
//  { 287, 23596.0, 5, 6 },
//  { 376, 100.80500030517578, 284, 309 },
//  { 266, 100.79500198364258, 285, 299 },
//  { 300, 100.76499938964844, 286, 291 },
//  { 204, 100.73500061035156, 287, 288 },
//  { 147, 18421.0, 6, 5 },
//  { 297, 14407.0, 289, 5 },
//  { 32, 100.7750015258789, 290, 6 },
//  { 112, 100.75500106811523, 5, 12 },
//  { 0, 100.79500198364258, 292, 296 },
//  { 92, 100.75499725341797, 5, 293 },
//  { 13, 11817.5, 12, 294 },
//  { 175, 8209.0, 295, 12 },
//  { 299, 7833.5, 12, 6 },
//  { 181, 7839.0, 297, 298 },
//  { 21, 8000.5, 12, 6 },
//  { 196, 100.80500030517578, 5, 6 },
//  { 38, 100.80500030517578, 300, 308 },
//  { 215, 8846.0, 301, 306 },
//  { 313, 18909.0, 302, 12 },
//  { 181, 7442.0, 303, 5 },
//  { 349, 3880.0, 304, 12 },
//  { 63, 4793.0, 5, 305 },
//  { 125, 5429.0, 12, 5 },
//  { 109, 25577.0, 5, 307 },
//  { 387, 19447.5, 12, 5 },
//  { 41, 12290.5, 6, 5 },
//  { 146, 100.80500030517578, 310, 6 },
//  { 146, 100.79000091552734, 6, 5 },
//  { 0, 100.80500030517578, 312, 335 },
//  { 390, 100.79500198364258, 313, 324 },
//  { 290, 100.76499938964844, 314, 318 },
//  { 138, 100.70499801635742, 6, 315 },
//  { 201, 17779.0, 316, 5 },
//  { 52, 100.74499893188477, 317, 6 },
//  { 62, 100.72500228881836, 6, 5 },
//  { 60, 100.79500198364258, 319, 323 },
//  { 252, 100.77499771118164, 320, 321 },
//  { 103, 14391.0, 12, 5 },
//  { 3, 11199.5, 12, 322 },
//  { 245, 5854.0, 5, 12 },
//  { 89, 9558.5, 12, 5 },
//  { 142, 100.78499984741211, 325, 326 },
//  { 315, 9246.5, 5, 6 },
//  { 143, 32102.0, 327, 6 },
//  { 275, 1536.5, 12, 328 },
//  { 87, 25919.0, 329, 334 },
//  { 389, 6093.5, 330, 5 },
//  { 327, 6512.0, 331, 12 },
//  { 45, 4793.0, 5, 332 },
//  { 282, 100.80500030517578, 333, 5 },
//  { 147, 9840.0, 12, 5 },
//  { 152, 100.79999923706055, 5, 12 },
//  { 98, 100.80500030517578, 5, 336 },
//  { 177, 29659.0, 6, 337 },
//  { 179, 30619.0, 5, 6 },
//  { 152, 100.80500030517578, 339, 364 },
//  { 52, 100.79500198364258, 340, 355 },
//  { 156, 100.77499771118164, 341, 348 },
//  { 154, 100.73500061035156, 342, 343 },
//  { 199, 17937.0, 6, 5 },
//  { 26, 100.76499938964844, 344, 346 },
//  { 31, 13747.0, 345, 5 },
//  { 399, 16077.5, 5, 6 },
//  { 12, 100.78499984741211, 12, 347 },
//  { 82, 100.78499984741211, 6, 5 },
//  { 342, 100.79500198364258, 349, 352 },
//  { 352, 100.7599983215332, 5, 350 },
//  { 9, 13112.5, 12, 351 },
//  { 61, 10895.0, 6, 12 },
//  { 27, 3201.5, 12, 353 },
//  { 276, 100.79500198364258, 354, 5 },
//  { 205, 9313.0, 5, 12 },
//  { 281, 6329.5, 356, 358 },
//  { 197, 6878.0, 357, 6 },
//  { 287, 3368.0, 12, 5 },
//  { 37, 922.5, 12, 359 },
//  { 129, 8076.0, 360, 362 },
//  { 271, 12868.0, 361, 5 },
//  { 184, 100.79500198364258, 6, 12 },
//  { 242, 100.78499984741211, 363, 5 },
//  { 355, 14532.0, 6, 5 },
//  { 284, 100.80500030517578, 365, 6 },
//  { 129, 14701.0, 6, 366 },
//  { 33, 22588.0, 5, 12 },
//  { 372, 100.80500030517578, 368, 385 },
//  { 378, 100.79500198364258, 369, 380 },
//  { 388, 100.76499938964844, 370, 374 },
//  { 167, 17520.0, 371, 5 },
//  { 229, 18661.0, 372, 5 },
//  { 374, 100.75, 6, 373 },
//  { 259, 15219.0, 6, 5 },
//  { 10, 100.79500198364258, 375, 377 },
//  { 399, 13760.0, 12, 376 },
//  { 277, 7530.5, 5, 12 },
//  { 71, 15004.0, 378, 379 },
//  { 359, 12310.5, 12, 6 },
//  { 297, 17290.5, 6, 5 },
//  { 312, 100.80500030517578, 381, 6 },
//  { 257, 6194.5, 382, 383 },
//  { 160, 100.79500198364258, 12, 5 },
//  { 89, 25919.0, 5, 384 },
//  { 261, 21574.0, 12, 5 },
//  { 322, 100.80500030517578, 386, 387 },
//  { 189, 19875.0, 6, 5 },
//  { 68, 100.80500030517578, 388, 6 },
//  { 283, 21518.0, 389, 6 },
//  { 91, 13404.5, 6, 5 },
//  { 294, 100.80500030517578, 391, 413 },
//  { 390, 100.79500198364258, 392, 407 },
//  { 298, 100.75500106811523, 393, 395 },
//  { 337, 16377.5, 394, 5 },
//  { 359, 10209.0, 5, 6 },
//  { 22, 100.79500198364258, 396, 402 },
//  { 392, 100.7599983215332, 397, 398 },
//  { 81, 17643.0, 6, 5 },
//  { 219, 6783.5, 399, 12 },
//  { 25, 11536.0, 400, 6 },
//  { 17, 10870.0, 12, 401 },
//  { 281, 5291.5, 5, 12 },
//  { 127, 15333.0, 403, 5 },
//  { 385, 11667.5, 404, 405 },
//  { 47, 11955.5, 12, 5 },
//  { 296, 100.79500198364258, 406, 12 },
//  { 103, 7308.5, 5, 6 },
//  { 86, 100.7400016784668, 6, 408 },
//  { 385, 4588.0, 12, 409 },
//  { 395, 6093.5, 410, 411 },
//  { 208, 100.79500198364258, 12, 5 },
//  { 93, 3940.5, 412, 5 },
//  { 143, 15438.0, 6, 5 },
//  { 398, 100.80500030517578, 414, 6 },
//  { 75, 7440.5, 6, 5 },
//  { 292, 100.80500030517578, 416, 435 },
//  { 374, 100.79500198364258, 417, 430 },
//  { 392, 100.76499938964844, 418, 423 },
//  { 77, 16598.5, 419, 421 },
//  { 201, 17659.0, 6, 420 },
//  { 152, 100.75, 6, 5 },
//  { 137, 16895.0, 422, 5 },
//  { 185, 15248.5, 5, 6 },
//  { 120, 100.79500198364258, 424, 428 },
//  { 92, 100.75, 425, 426 },
//  { 396, 100.77499771118164, 5, 6 },
//  { 367, 14442.5, 12, 427 },
//  { 223, 6285.0, 5, 12 },
//  { 3, 12065.0, 429, 5 },
//  { 20, 100.80500030517578, 12, 6 },
//  { 110, 100.71999740600586, 6, 431 },
//  { 265, 4593.0, 12, 432 },
//  { 91, 25919.0, 433, 12 },
//  { 3, 5097.5, 434, 5 },
//  { 108, 100.80500030517578, 5, 6 },
//  { 170, 100.80500030517578, 436, 6 },
//  { 281, 25830.0, 5, 6 },
//  { 362, 100.80500030517578, 438, 6 },
//  { 356, 100.79500198364258, 439, 453 },
//  { 262, 100.77499771118164, 440, 446 },
//  { 255, 15693.5, 441, 443 },
//  { 235, 19534.0, 442, 5 },
//  { 277, 9568.5, 5, 6 },
//  { 205, 16580.0, 6, 444 },
//  { 357, 14365.0, 6, 445 },
//  { 275, 22210.0, 5, 12 },
//  { 46, 100.79500198364258, 447, 451 },
//  { 245, 6166.5, 448, 12 },
//  { 159, 8089.5, 449, 6 },
//  { 301, 7795.0, 12, 450 },
//  { 85, 8856.5, 12, 5 },
//  { 307, 17290.5, 452, 5 },
//  { 112, 100.80500030517578, 12, 6 },
//  { 113, 4852.0, 454, 455 },
//  { 202, 100.80500030517578, 5, 6 },
//  { 226, 100.81499862670898, 456, 6 },
//  { 378, 100.79500198364258, 12, 457 },
//  { 73, 25981.0, 458, 460 },
//  { 310, 100.79500198364258, 459, 5 },
//  { 353, 9038.0, 12, 5 },
//  { 273, 19385.0, 12, 5 },
//  { 394, 100.80500030517578, 462, 486 },
//  { 340, 100.79500198364258, 463, 476 },
//  { 398, 100.76499938964844, 464, 467 },
//  { 353, 15485.0, 6, 465 },
//  { 247, 15958.5, 466, 5 },
//  { 271, 18937.0, 6, 5 },
//  { 218, 100.79500198364258, 468, 474 },
//  { 186, 100.7599983215332, 469, 470 },
//  { 51, 13648.0, 6, 5 },
//  { 29, 10170.0, 12, 471 },
//  { 173, 7058.0, 5, 472 },
//  { 251, 7197.5, 473, 12 },
//  { 47, 11472.0, 12, 6 },
//  { 74, 100.79500198364258, 12, 475 },
//  { 293, 5408.0, 12, 5 },
//  { 253, 6185.5, 477, 480 },
//  { 22, 100.80500030517578, 478, 6 },
//  { 273, 1536.5, 12, 479 },
//  { 187, 3271.5, 5, 12 },
//  { 258, 100.80500030517578, 481, 485 },
//  { 376, 100.79500198364258, 482, 483 },
//  { 227, 17036.5, 12, 5 },
//  { 101, 24152.0, 5, 484 },
//  { 113, 25334.0, 12, 5 },
//  { 310, 100.80500030517578, 6, 5 },
//  { 140, 100.80500030517578, 487, 6 },
//  { 40, 100.77000045776367, 6, 5 } 
//};
//
//int32_t sonar_tree_roots[20] = { 0, 26, 53, 74, 96, 119, 143, 168, 189, 215, 235, 255, 283, 311, 338, 367, 390, 415, 437, 461 };
//
//EmlTrees sonar = {
//        488,
//        sonar_nodes,    
//        20,
//        sonar_tree_roots,
//    };
//
//static inline int32_t sonar_predict_tree_0(const float *features, int32_t features_length) {
//          if (features[186] < 100.80500030517578) {
//              if (features[348] < 100.79500198364258) {
//                  if (features[250] < 100.76499938964844) {
//                      if (features[371] < 14673.5) {
//                          if (features[363] < 10015.5) {
//                              return 2;
//                          } else {
//                              return 1;
//                          }
//                      } else {
//                          if (features[216] < 100.72000122070312) {
//                              if (features[225] < 17146.0) {
//                                  return 1;
//                              } else {
//                                  return 2;
//                              }
//                          } else {
//                              return 2;
//                          }
//                      }
//                  } else {
//                      if (features[0] < 100.79500198364258) {
//                          if (features[273] < 6466.0) {
//                              if (features[3] < 11200.5) {
//                                  return 0;
//                              } else {
//                                  if (features[129] < 8142.0) {
//                                      return 2;
//                                  } else {
//                                      if (features[173] < 8004.5) {
//                                          return 0;
//                                      } else {
//                                          return 1;
//                                      }
//                                  }
//                              }
//                          } else {
//                              return 0;
//                          }
//                      } else {
//                          if (features[3] < 12373.0) {
//                              if (features[325] < 12169.0) {
//                                  return 0;
//                              } else {
//                                  return 1;
//                              }
//                          } else {
//                              if (features[222] < 100.77999877929688) {
//                                  return 1;
//                              } else {
//                                  return 2;
//                              }
//                          }
//                      }
//                  }
//              } else {
//                  if (features[152] < 100.80500030517578) {
//                      if (features[273] < 31261.0) {
//                          if (features[293] < 3368.0) {
//                              return 0;
//                          } else {
//                              if (features[378] < 100.79500198364258) {
//                                  if (features[357] < 14000.0) {
//                                      return 0;
//                                  } else {
//                                      return 2;
//                                  }
//                              } else {
//                                  return 2;
//                              }
//                          }
//                      } else {
//                          return 1;
//                      }
//                  } else {
//                      return 0;
//                  }
//              }
//          } else {
//              if (features[282] < 100.80500030517578) {
//                  if (features[47] < 10937.0) {
//                      return 1;
//                  } else {
//                      return 2;
//                  }
//              } else {
//                  if (features[166] < 100.80500030517578) {
//                      return 2;
//                  } else {
//                      return 1;
//                  }
//              }
//          }
//        }
//        
//
//static inline int32_t sonar_predict_tree_1(const float *features, int32_t features_length) {
//          if (features[312] < 100.80500030517578) {
//              if (features[334] < 100.79500198364258) {
//                  if (features[390] < 100.77499771118164) {
//                      if (features[271] < 16490.0) {
//                          if (features[361] < 10209.0) {
//                              return 2;
//                          } else {
//                              if (features[217] < 18661.0) {
//                                  if (features[285] < 15466.5) {
//                                      return 1;
//                                  } else {
//                                      if (features[165] < 15248.5) {
//                                          return 2;
//                                      } else {
//                                          return 1;
//                                      }
//                                  }
//                              } else {
//                                  return 2;
//                              }
//                          }
//                      } else {
//                          if (features[101] < 17414.0) {
//                              if (features[339] < 20951.0) {
//                                  return 1;
//                              } else {
//                                  if (features[290] < 100.77499771118164) {
//                                      return 0;
//                                  } else {
//                                      return 2;
//                                  }
//                              }
//                          } else {
//                              return 2;
//                          }
//                      }
//                  } else {
//                      if (features[42] < 100.79500198364258) {
//                          if (features[182] < 100.75) {
//                              if (features[32] < 100.72500228881836) {
//                                  return 1;
//                              } else {
//                                  return 2;
//                              }
//                          } else {
//                              if (features[213] < 6783.5) {
//                                  if (features[381] < 14869.0) {
//                                      if (features[187] < 7353.5) {
//                                          return 0;
//                                      } else {
//                                          return 1;
//                                      }
//                                  } else {
//                                      return 2;
//                                  }
//                              } else {
//                                  return 0;
//                              }
//                          }
//                      } else {
//                          if (features[246] < 100.79500198364258) {
//                              if (features[138] < 100.79500198364258) {
//                                  return 0;
//                              } else {
//                                  return 1;
//                              }
//                          } else {
//                              if (features[156] < 100.80500030517578) {
//                                  return 2;
//                              } else {
//                                  return 1;
//                              }
//                          }
//                      }
//                  }
//              } else {
//                  if (features[285] < 2125.5) {
//                      return 1;
//                  } else {
//                      if (features[103] < 8884.0) {
//                          if (features[47] < 9720.5) {
//                              if (features[287] < 6218.0) {
//                                  if (features[155] < 3599.5) {
//                                      return 2;
//                                  } else {
//                                      return 0;
//                                  }
//                              } else {
//                                  return 2;
//                              }
//                          } else {
//                              return 0;
//                          }
//                      } else {
//                          return 2;
//                      }
//                  }
//              }
//          } else {
//              if (features[172] < 100.80500030517578) {
//                  if (features[136] < 100.78000259399414) {
//                      return 1;
//                  } else {
//                      return 2;
//                  }
//              } else {
//                  return 1;
//              }
//          }
//        }
//        
//
//static inline int32_t sonar_predict_tree_2(const float *features, int32_t features_length) {
//          if (features[302] < 100.79500198364258) {
//              if (features[386] < 100.77499771118164) {
//                  if (features[255] < 15687.5) {
//                      if (features[369] < 9280.0) {
//                          return 2;
//                      } else {
//                          return 1;
//                      }
//                  } else {
//                      if (features[398] < 100.70000076293945) {
//                          return 1;
//                      } else {
//                          if (features[101] < 20664.0) {
//                              if (features[382] < 100.76499938964844) {
//                                  return 2;
//                              } else {
//                                  return 0;
//                              }
//                          } else {
//                              return 1;
//                          }
//                      }
//                  }
//              } else {
//                  if (features[182] < 100.75) {
//                      return 1;
//                  } else {
//                      if (features[184] < 100.79500198364258) {
//                          return 0;
//                      } else {
//                          if (features[13] < 13674.5) {
//                              if (features[16] < 100.80500030517578) {
//                                  return 0;
//                              } else {
//                                  return 1;
//                              }
//                          } else {
//                              return 2;
//                          }
//                      }
//                  }
//              }
//          } else {
//              if (features[188] < 100.80500030517578) {
//                  if (features[192] < 100.78499984741211) {
//                      return 1;
//                  } else {
//                      if (features[9] < 2213.5) {
//                          return 0;
//                      } else {
//                          if (features[84] < 100.80500030517578) {
//                              if (features[131] < 8076.0) {
//                                  if (features[97] < 7975.5) {
//                                      return 2;
//                                  } else {
//                                      return 0;
//                                  }
//                              } else {
//                                  return 2;
//                              }
//                          } else {
//                              if (features[25] < 21360.0) {
//                                  return 2;
//                              } else {
//                                  return 0;
//                              }
//                          }
//                      }
//                  }
//              } else {
//                  if (features[172] < 100.80500030517578) {
//                      return 2;
//                  } else {
//                      if (features[276] < 100.80500030517578) {
//                          if (features[3] < 9912.0) {
//                              return 1;
//                          } else {
//                              return 2;
//                          }
//                      } else {
//                          return 1;
//                      }
//                  }
//              }
//          }
//        }
//        
//
//static inline int32_t sonar_predict_tree_3(const float *features, int32_t features_length) {
//          if (features[186] < 100.80500030517578) {
//              if (features[244] < 100.79500198364258) {
//                  if (features[268] < 100.76499938964844) {
//                      if (features[213] < 15429.0) {
//                          if (features[219] < 11424.5) {
//                              if (features[19] < 13022.5) {
//                                  return 1;
//                              } else {
//                                  return 2;
//                              }
//                          } else {
//                              return 1;
//                          }
//                      } else {
//                          if (features[372] < 100.71500015258789) {
//                              return 1;
//                          } else {
//                              if (features[80] < 100.79500198364258) {
//                                  return 2;
//                              } else {
//                                  return 1;
//                              }
//                          }
//                      }
//                  } else {
//                      if (features[352] < 100.79500198364258) {
//                          if (features[358] < 100.7599983215332) {
//                              return 2;
//                          } else {
//                              if (features[299] < 30660.0) {
//                                  if (features[363] < 14884.5) {
//                                      return 0;
//                                  } else {
//                                      if (features[249] < 8050.5) {
//                                          return 2;
//                                      } else {
//                                          return 0;
//                                      }
//                                  }
//                              } else {
//                                  if (features[6] < 100.79000091552734) {
//                                      return 0;
//                                  } else {
//                                      return 1;
//                                  }
//                              }
//                          }
//                      } else {
//                          if (features[204] < 100.78499984741211) {
//                              return 1;
//                          } else {
//                              if (features[181] < 3627.5) {
//                                  return 0;
//                              } else {
//                                  if (features[316] < 100.79500198364258) {
//                                      return 0;
//                                  } else {
//                                      return 2;
//                                  }
//                              }
//                          }
//                      }
//                  }
//              } else {
//                  if (features[311] < 5503.0) {
//                      if (features[367] < 3127.0) {
//                          return 2;
//                      } else {
//                          return 0;
//                      }
//                  } else {
//                      return 2;
//                  }
//              }
//          } else {
//              if (features[166] < 100.80500030517578) {
//                  return 2;
//              } else {
//                  if (features[302] < 100.80500030517578) {
//                      if (features[11] < 11386.0) {
//                          return 1;
//                      } else {
//                          return 2;
//                      }
//                  } else {
//                      return 1;
//                  }
//              }
//          }
//        }
//        
//
//static inline int32_t sonar_predict_tree_4(const float *features, int32_t features_length) {
//          if (features[324] < 100.80500030517578) {
//              if (features[320] < 100.79500198364258) {
//                  if (features[258] < 100.76499938964844) {
//                      if (features[221] < 16517.0) {
//                          if (features[231] < 16456.0) {
//                              if (features[271] < 9568.5) {
//                                  return 2;
//                              } else {
//                                  return 1;
//                              }
//                          } else {
//                              return 0;
//                          }
//                      } else {
//                          if (features[89] < 27133.0) {
//                              if (features[372] < 100.71500015258789) {
//                                  if (features[291] < 16381.0) {
//                                      return 1;
//                                  } else {
//                                      return 2;
//                                  }
//                              } else {
//                                  return 2;
//                              }
//                          } else {
//                              return 1;
//                          }
//                      }
//                  } else {
//                      if (features[34] < 100.79500198364258) {
//                          if (features[376] < 100.7599983215332) {
//                              return 2;
//                          } else {
//                              if (features[273] < 6153.5) {
//                                  if (features[21] < 11785.5) {
//                                      return 0;
//                                  } else {
//                                      return 1;
//                                  }
//                              } else {
//                                  return 0;
//                              }
//                          }
//                      } else {
//                          if (features[394] < 100.78499984741211) {
//                              if (features[285] < 19099.5) {
//                                  return 1;
//                              } else {
//                                  if (features[26] < 100.80500030517578) {
//                                      return 2;
//                                  } else {
//                                      return 1;
//                                  }
//                              }
//                          } else {
//                              if (features[37] < 13775.0) {
//                                  if (features[352] < 100.79500198364258) {
//                                      return 0;
//                                  } else {
//                                      return 2;
//                                  }
//                              } else {
//                                  return 2;
//                              }
//                          }
//                      }
//                  }
//              } else {
//                  if (features[131] < 4645.0) {
//                      if (features[156] < 100.80500030517578) {
//                          return 0;
//                      } else {
//                          return 1;
//                      }
//                  } else {
//                      if (features[107] < 4852.0) {
//                          return 1;
//                      } else {
//                          if (features[87] < 25919.0) {
//                              return 2;
//                          } else {
//                              if (features[217] < 20269.0) {
//                                  return 0;
//                              } else {
//                                  return 2;
//                              }
//                          }
//                      }
//                  }
//              }
//          } else {
//              return 1;
//          }
//        }
//        
//
//static inline int32_t sonar_predict_tree_5(const float *features, int32_t features_length) {
//          if (features[378] < 100.80500030517578) {
//              if (features[368] < 100.79500198364258) {
//                  if (features[396] < 100.77499771118164) {
//                      if (features[257] < 15687.5) {
//                          if (features[394] < 100.75500106811523) {
//                              return 1;
//                          } else {
//                              return 2;
//                          }
//                      } else {
//                          if (features[294] < 100.71500015258789) {
//                              return 1;
//                          } else {
//                              if (features[301] < 24697.0) {
//                                  if (features[7] < 26144.0) {
//                                      return 2;
//                                  } else {
//                                      return 1;
//                                  }
//                              } else {
//                                  if (features[261] < 25725.0) {
//                                      return 0;
//                                  } else {
//                                      return 1;
//                                  }
//                              }
//                          }
//                      }
//                  } else {
//                      if (features[190] < 100.79500198364258) {
//                          if (features[72] < 100.7400016784668) {
//                              return 1;
//                          } else {
//                              if (features[3] < 11200.5) {
//                                  return 0;
//                              } else {
//                                  if (features[215] < 6404.0) {
//                                      return 2;
//                                  } else {
//                                      if (features[209] < 6938.5) {
//                                          return 1;
//                                      } else {
//                                          return 0;
//                                      }
//                                  }
//                              }
//                          }
//                      } else {
//                          if (features[53] < 15004.0) {
//                              if (features[361] < 10810.5) {
//                                  return 0;
//                              } else {
//                                  return 1;
//                              }
//                          } else {
//                              return 2;
//                          }
//                      }
//                  }
//              } else {
//                  if (features[359] < 29868.0) {
//                      if (features[93] < 25919.0) {
//                          if (features[310] < 100.79500198364258) {
//                              if (features[257] < 8868.5) {
//                                  return 0;
//                              } else {
//                                  return 2;
//                              }
//                          } else {
//                              return 2;
//                          }
//                      } else {
//                          if (features[74] < 100.80500030517578) {
//                              return 2;
//                          } else {
//                              return 0;
//                          }
//                      }
//                  } else {
//                      if (features[209] < 8974.5) {
//                          return 1;
//                      } else {
//                          return 2;
//                      }
//                  }
//              }
//          } else {
//              if (features[292] < 100.80500030517578) {
//                  if (features[227] < 14955.5) {
//                      return 1;
//                  } else {
//                      return 2;
//                  }
//              } else {
//                  return 1;
//              }
//          }
//        }
//        
//
//static inline int32_t sonar_predict_tree_6(const float *features, int32_t features_length) {
//          if (features[268] < 100.80500030517578) {
//              if (features[288] < 100.79500198364258) {
//                  if (features[182] < 100.76499938964844) {
//                      if (features[217] < 16568.0) {
//                          if (features[240] < 100.74499893188477) {
//                              if (features[320] < 100.75) {
//                                  return 1;
//                              } else {
//                                  if (features[71] < 16561.0) {
//                                      return 1;
//                                  } else {
//                                      return 2;
//                                  }
//                              }
//                          } else {
//                              if (features[224] < 100.75500106811523) {
//                                  return 2;
//                              } else {
//                                  if (features[187] < 14747.0) {
//                                      return 1;
//                                  } else {
//                                      return 0;
//                                  }
//                              }
//                          }
//                      } else {
//                          return 2;
//                      }
//                  } else {
//                      if (features[24] < 100.79500198364258) {
//                          if (features[330] < 100.79500198364258) {
//                              if (features[205] < 7446.5) {
//                                  if (features[1] < 11199.5) {
//                                      return 0;
//                                  } else {
//                                      if (features[39] < 11082.5) {
//                                          return 2;
//                                      } else {
//                                          return 1;
//                                      }
//                                  }
//                              } else {
//                                  return 0;
//                              }
//                          } else {
//                              return 2;
//                          }
//                      } else {
//                          if (features[2] < 100.79500198364258) {
//                              return 0;
//                          } else {
//                              if (features[20] < 100.80500030517578) {
//                                  if (features[124] < 100.78499984741211) {
//                                      return 1;
//                                  } else {
//                                      return 2;
//                                  }
//                              } else {
//                                  return 1;
//                              }
//                          }
//                      }
//                  }
//              } else {
//                  if (features[161] < 3114.0) {
//                      if (features[305] < 1405.0) {
//                          return 0;
//                      } else {
//                          return 1;
//                      }
//                  } else {
//                      if (features[35] < 24214.0) {
//                          if (features[333] < 21814.0) {
//                              return 2;
//                          } else {
//                              if (features[325] < 21889.0) {
//                                  return 0;
//                              } else {
//                                  return 2;
//                              }
//                          }
//                      } else {
//                          if (features[241] < 21895.0) {
//                              return 0;
//                          } else {
//                              return 2;
//                          }
//                      }
//                  }
//              }
//          } else {
//              if (features[172] < 100.80500030517578) {
//                  if (features[208] < 100.79000091552734) {
//                      return 1;
//                  } else {
//                      return 2;
//                  }
//              } else {
//                  return 1;
//              }
//          }
//        }
//        
//
//static inline int32_t sonar_predict_tree_7(const float *features, int32_t features_length) {
//          if (features[172] < 100.80500030517578) {
//              if (features[354] < 100.79500198364258) {
//                  if (features[396] < 100.76499938964844) {
//                      if (features[219] < 17779.0) {
//                          if (features[365] < 16234.5) {
//                              if (features[303] < 12003.5) {
//                                  if (features[351] < 12405.5) {
//                                      return 1;
//                                  } else {
//                                      return 2;
//                                  }
//                              } else {
//                                  return 1;
//                              }
//                          } else {
//                              return 2;
//                          }
//                      } else {
//                          if (features[259] < 15625.5) {
//                              if (features[329] < 15468.0) {
//                                  return 1;
//                              } else {
//                                  return 2;
//                              }
//                          } else {
//                              return 2;
//                          }
//                      }
//                  } else {
//                      if (features[264] < 100.79500198364258) {
//                          if (features[240] < 100.75500106811523) {
//                              if (features[130] < 100.72500228881836) {
//                                  return 1;
//                              } else {
//                                  return 2;
//                              }
//                          } else {
//                              if (features[26] < 100.79500198364258) {
//                                  return 0;
//                              } else {
//                                  if (features[386] < 100.78499984741211) {
//                                      return 1;
//                                  } else {
//                                      return 0;
//                                  }
//                              }
//                          }
//                      } else {
//                          if (features[99] < 16473.0) {
//                              return 2;
//                          } else {
//                              if (features[188] < 100.79500198364258) {
//                                  return 0;
//                              } else {
//                                  return 2;
//                              }
//                          }
//                      }
//                  }
//              } else {
//                  if (features[56] < 100.7249984741211) {
//                      return 1;
//                  } else {
//                      if (features[339] < 3061.0) {
//                          return 0;
//                      } else {
//                          if (features[144] < 100.80500030517578) {
//                              return 2;
//                          } else {
//                              return 0;
//                          }
//                      }
//                  }
//              }
//          } else {
//              if (features[282] < 100.80500030517578) {
//                  if (features[55] < 9422.5) {
//                      return 1;
//                  } else {
//                      return 2;
//                  }
//              } else {
//                  return 1;
//              }
//          }
//        }
//        
//
//static inline int32_t sonar_predict_tree_8(const float *features, int32_t features_length) {
//          if (features[162] < 100.80500030517578) {
//              if (features[14] < 100.79500198364258) {
//                  if (features[136] < 100.75500106811523) {
//                      if (features[74] < 100.72500228881836) {
//                          return 1;
//                      } else {
//                          if (features[27] < 13747.0) {
//                              if (features[150] < 100.74499893188477) {
//                                  return 1;
//                              } else {
//                                  return 2;
//                              }
//                          } else {
//                              if (features[68] < 100.75500106811523) {
//                                  return 2;
//                              } else {
//                                  return 1;
//                              }
//                          }
//                      }
//                  } else {
//                      if (features[354] < 100.79500198364258) {
//                          if (features[342] < 100.75500106811523) {
//                              if (features[69] < 20121.0) {
//                                  return 2;
//                              } else {
//                                  return 1;
//                              }
//                          } else {
//                              if (features[45] < 11852.0) {
//                                  if (features[365] < 14869.0) {
//                                      return 0;
//                                  } else {
//                                      if (features[377] < 15899.5) {
//                                          return 2;
//                                      } else {
//                                          return 0;
//                                      }
//                                  }
//                              } else {
//                                  if (features[195] < 8858.5) {
//                                      return 1;
//                                  } else {
//                                      return 0;
//                                  }
//                              }
//                          }
//                      } else {
//                          return 2;
//                      }
//                  }
//              } else {
//                  if (features[286] < 100.75500106811523) {
//                      return 1;
//                  } else {
//                      if (features[219] < 3674.0) {
//                          return 0;
//                      } else {
//                          if (features[384] < 100.79500198364258) {
//                              if (features[277] < 17229.5) {
//                                  if (features[175] < 10104.5) {
//                                      if (features[31] < 11874.0) {
//                                          return 1;
//                                      } else {
//                                          return 2;
//                                      }
//                                  } else {
//                                      return 0;
//                                  }
//                              } else {
//                                  return 2;
//                              }
//                          } else {
//                              if (features[138] < 100.80500030517578) {
//                                  return 2;
//                              } else {
//                                  if (features[109] < 23517.0) {
//                                      return 2;
//                                  } else {
//                                      return 0;
//                                  }
//                              }
//                          }
//                      }
//                  }
//              }
//          } else {
//              if (features[126] < 100.80500030517578) {
//                  if (features[119] < 10015.0) {
//                      return 1;
//                  } else {
//                      return 2;
//                  }
//              } else {
//                  if (features[226] < 100.80500030517578) {
//                      if (features[156] < 100.81499862670898) {
//                          return 1;
//                      } else {
//                          return 2;
//                      }
//                  } else {
//                      return 1;
//                  }
//              }
//          }
//        }
//        
//
//static inline int32_t sonar_predict_tree_9(const float *features, int32_t features_length) {
//          if (features[354] < 100.80500030517578) {
//              if (features[348] < 100.79500198364258) {
//                  if (features[380] < 100.77499771118164) {
//                      if (features[350] < 100.72000122070312) {
//                          if (features[185] < 17985.0) {
//                              return 1;
//                          } else {
//                              if (features[344] < 100.71500015258789) {
//                                  return 2;
//                              } else {
//                                  return 1;
//                              }
//                          }
//                      } else {
//                          if (features[110] < 100.79000091552734) {
//                              if (features[39] < 22716.0) {
//                                  return 2;
//                              } else {
//                                  return 1;
//                              }
//                          } else {
//                              return 1;
//                          }
//                      }
//                  } else {
//                      if (features[4] < 100.79500198364258) {
//                          if (features[363] < 15217.5) {
//                              return 0;
//                          } else {
//                              if (features[251] < 8138.5) {
//                                  return 2;
//                              } else {
//                                  return 0;
//                              }
//                          }
//                      } else {
//                          if (features[19] < 11108.0) {
//                              if (features[18] < 100.80500030517578) {
//                                  return 0;
//                              } else {
//                                  return 1;
//                              }
//                          } else {
//                              return 2;
//                          }
//                      }
//                  }
//              } else {
//                  if (features[219] < 3273.0) {
//                      if (features[136] < 100.80500030517578) {
//                          return 0;
//                      } else {
//                          return 1;
//                      }
//                  } else {
//                      if (features[81] < 25981.0) {
//                          return 2;
//                      } else {
//                          if (features[385] < 19146.0) {
//                              return 0;
//                          } else {
//                              return 2;
//                          }
//                      }
//                  }
//              }
//          } else {
//              if (features[360] < 100.80500030517578) {
//                  return 2;
//              } else {
//                  if (features[166] < 100.80500030517578) {
//                      if (features[303] < 28097.0) {
//                          return 2;
//                      } else {
//                          return 1;
//                      }
//                  } else {
//                      return 1;
//                  }
//              }
//          }
//        }
//        
//
//static inline int32_t sonar_predict_tree_10(const float *features, int32_t features_length) {
//          if (features[16] < 100.80500030517578) {
//              if (features[358] < 100.79500198364258) {
//                  if (features[270] < 100.76499938964844) {
//                      if (features[149] < 19250.0) {
//                          if (features[332] < 100.72500228881836) {
//                              return 1;
//                          } else {
//                              if (features[95] < 15334.5) {
//                                  return 1;
//                              } else {
//                                  if (features[6] < 100.75500106811523) {
//                                      return 2;
//                                  } else {
//                                      return 0;
//                                  }
//                              }
//                          }
//                      } else {
//                          return 2;
//                      }
//                  } else {
//                      if (features[192] < 100.79500198364258) {
//                          if (features[95] < 9794.0) {
//                              return 0;
//                          } else {
//                              if (features[161] < 8191.5) {
//                                  return 1;
//                              } else {
//                                  return 0;
//                              }
//                          }
//                      } else {
//                          if (features[307] < 9466.5) {
//                              return 0;
//                          } else {
//                              return 2;
//                          }
//                      }
//                  }
//              } else {
//                  if (features[371] < 30903.0) {
//                      if (features[261] < 3705.5) {
//                          if (features[144] < 100.79500198364258) {
//                              return 2;
//                          } else {
//                              return 0;
//                          }
//                      } else {
//                          if (features[95] < 25732.0) {
//                              if (features[85] < 8968.5) {
//                                  if (features[11] < 10485.5) {
//                                      return 2;
//                                  } else {
//                                      return 0;
//                                  }
//                              } else {
//                                  return 2;
//                              }
//                          } else {
//                              return 0;
//                          }
//                      }
//                  } else {
//                      return 1;
//                  }
//              }
//          } else {
//              if (features[260] < 100.80500030517578) {
//                  if (features[361] < 19351.0) {
//                      if (features[352] < 100.79500198364258) {
//                          return 1;
//                      } else {
//                          return 2;
//                      }
//                  } else {
//                      return 2;
//                  }
//              } else {
//                  return 1;
//              }
//          }
//        }
//        
//
//static inline int32_t sonar_predict_tree_11(const float *features, int32_t features_length) {
//          if (features[8] < 100.80500030517578) {
//              if (features[324] < 100.79500198364258) {
//                  if (features[282] < 100.76499938964844) {
//                      if (features[291] < 17506.0) {
//                          if (features[362] < 100.75500106811523) {
//                              if (features[225] < 19165.0) {
//                                  return 1;
//                              } else {
//                                  return 2;
//                              }
//                          } else {
//                              if (features[374] < 100.78999710083008) {
//                                  return 2;
//                              } else {
//                                  return 1;
//                              }
//                          }
//                      } else {
//                          return 2;
//                      }
//                  } else {
//                      if (features[196] < 100.79500198364258) {
//                          if (features[182] < 100.75499725341797) {
//                              if (features[310] < 100.78499984741211) {
//                                  return 2;
//                              } else {
//                                  return 1;
//                              }
//                          } else {
//                              if (features[236] < 100.77499771118164) {
//                                  if (features[72] < 100.78499984741211) {
//                                      return 0;
//                                  } else {
//                                      return 2;
//                                  }
//                              } else {
//                                  if (features[273] < 6153.5) {
//                                      if (features[3] < 11200.5) {
//                                          return 0;
//                                      } else {
//                                          if (features[387] < 10781.5) {
//                                              if (features[141] < 8396.5) {
//                                                  return 1;
//                                              } else {
//                                                  return 0;
//                                              }
//                                          } else {
//                                              return 2;
//                                          }
//                                      }
//                                  } else {
//                                      return 0;
//                                  }
//                              }
//                          }
//                      } else {
//                          if (features[60] < 100.79500198364258) {
//                              return 0;
//                          } else {
//                              return 2;
//                          }
//                      }
//                  }
//              } else {
//                  if (features[96] < 100.78499984741211) {
//                      return 1;
//                  } else {
//                      if (features[347] < 1269.0) {
//                          return 0;
//                      } else {
//                          if (features[79] < 25981.0) {
//                              if (features[57] < 9679.5) {
//                                  if (features[107] < 7877.0) {
//                                      if (features[215] < 3674.0) {
//                                          if (features[345] < 2233.0) {
//                                              return 2;
//                                          } else {
//                                              return 0;
//                                          }
//                                      } else {
//                                          return 2;
//                                      }
//                                  } else {
//                                      return 0;
//                                  }
//                              } else {
//                                  return 2;
//                              }
//                          } else {
//                              return 0;
//                          }
//                      }
//                  }
//              }
//          } else {
//              if (features[302] < 100.80500030517578) {
//                  if (features[311] < 17809.0) {
//                      if (features[213] < 19569.0) {
//                          return 1;
//                      } else {
//                          return 2;
//                      }
//                  } else {
//                      if (features[287] < 23596.0) {
//                          return 2;
//                      } else {
//                          return 1;
//                      }
//                  }
//              } else {
//                  return 1;
//              }
//          }
//        }
//        
//
//static inline int32_t sonar_predict_tree_12(const float *features, int32_t features_length) {
//          if (features[376] < 100.80500030517578) {
//              if (features[266] < 100.79500198364258) {
//                  if (features[300] < 100.76499938964844) {
//                      if (features[204] < 100.73500061035156) {
//                          if (features[147] < 18421.0) {
//                              return 1;
//                          } else {
//                              return 2;
//                          }
//                      } else {
//                          if (features[297] < 14407.0) {
//                              if (features[32] < 100.7750015258789) {
//                                  if (features[112] < 100.75500106811523) {
//                                      return 2;
//                                  } else {
//                                      return 0;
//                                  }
//                              } else {
//                                  return 1;
//                              }
//                          } else {
//                              return 2;
//                          }
//                      }
//                  } else {
//                      if (features[0] < 100.79500198364258) {
//                          if (features[92] < 100.75499725341797) {
//                              return 2;
//                          } else {
//                              if (features[13] < 11817.5) {
//                                  return 0;
//                              } else {
//                                  if (features[175] < 8209.0) {
//                                      if (features[299] < 7833.5) {
//                                          return 0;
//                                      } else {
//                                          return 1;
//                                      }
//                                  } else {
//                                      return 0;
//                                  }
//                              }
//                          }
//                      } else {
//                          if (features[181] < 7839.0) {
//                              if (features[21] < 8000.5) {
//                                  return 0;
//                              } else {
//                                  return 1;
//                              }
//                          } else {
//                              if (features[196] < 100.80500030517578) {
//                                  return 2;
//                              } else {
//                                  return 1;
//                              }
//                          }
//                      }
//                  }
//              } else {
//                  if (features[38] < 100.80500030517578) {
//                      if (features[215] < 8846.0) {
//                          if (features[313] < 18909.0) {
//                              if (features[181] < 7442.0) {
//                                  if (features[349] < 3880.0) {
//                                      if (features[63] < 4793.0) {
//                                          return 2;
//                                      } else {
//                                          if (features[125] < 5429.0) {
//                                              return 0;
//                                          } else {
//                                              return 2;
//                                          }
//                                      }
//                                  } else {
//                                      return 0;
//                                  }
//                              } else {
//                                  return 2;
//                              }
//                          } else {
//                              return 0;
//                          }
//                      } else {
//                          if (features[109] < 25577.0) {
//                              return 2;
//                          } else {
//                              if (features[387] < 19447.5) {
//                                  return 0;
//                              } else {
//                                  return 2;
//                              }
//                          }
//                      }
//                  } else {
//                      if (features[41] < 12290.5) {
//                          return 1;
//                      } else {
//                          return 2;
//                      }
//                  }
//              }
//          } else {
//              if (features[146] < 100.80500030517578) {
//                  if (features[146] < 100.79000091552734) {
//                      return 1;
//                  } else {
//                      return 2;
//                  }
//              } else {
//                  return 1;
//              }
//          }
//        }
//        
//
//static inline int32_t sonar_predict_tree_13(const float *features, int32_t features_length) {
//          if (features[0] < 100.80500030517578) {
//              if (features[390] < 100.79500198364258) {
//                  if (features[290] < 100.76499938964844) {
//                      if (features[138] < 100.70499801635742) {
//                          return 1;
//                      } else {
//                          if (features[201] < 17779.0) {
//                              if (features[52] < 100.74499893188477) {
//                                  if (features[62] < 100.72500228881836) {
//                                      return 1;
//                                  } else {
//                                      return 2;
//                                  }
//                              } else {
//                                  return 1;
//                              }
//                          } else {
//                              return 2;
//                          }
//                      }
//                  } else {
//                      if (features[60] < 100.79500198364258) {
//                          if (features[252] < 100.77499771118164) {
//                              if (features[103] < 14391.0) {
//                                  return 0;
//                              } else {
//                                  return 2;
//                              }
//                          } else {
//                              if (features[3] < 11199.5) {
//                                  return 0;
//                              } else {
//                                  if (features[245] < 5854.0) {
//                                      return 2;
//                                  } else {
//                                      return 0;
//                                  }
//                              }
//                          }
//                      } else {
//                          if (features[89] < 9558.5) {
//                              return 0;
//                          } else {
//                              return 2;
//                          }
//                      }
//                  }
//              } else {
//                  if (features[142] < 100.78499984741211) {
//                      if (features[315] < 9246.5) {
//                          return 2;
//                      } else {
//                          return 1;
//                      }
//                  } else {
//                      if (features[143] < 32102.0) {
//                          if (features[275] < 1536.5) {
//                              return 0;
//                          } else {
//                              if (features[87] < 25919.0) {
//                                  if (features[389] < 6093.5) {
//                                      if (features[327] < 6512.0) {
//                                          if (features[45] < 4793.0) {
//                                              return 2;
//                                          } else {
//                                              if (features[282] < 100.80500030517578) {
//                                                  if (features[147] < 9840.0) {
//                                                      return 0;
//                                                  } else {
//                                                      return 2;
//                                                  }
//                                              } else {
//                                                  return 2;
//                                              }
//                                          }
//                                      } else {
//                                          return 0;
//                                      }
//                                  } else {
//                                      return 2;
//                                  }
//                              } else {
//                                  if (features[152] < 100.79999923706055) {
//                                      return 2;
//                                  } else {
//                                      return 0;
//                                  }
//                              }
//                          }
//                      } else {
//                          return 1;
//                      }
//                  }
//              }
//          } else {
//              if (features[98] < 100.80500030517578) {
//                  return 2;
//              } else {
//                  if (features[177] < 29659.0) {
//                      return 1;
//                  } else {
//                      if (features[179] < 30619.0) {
//                          return 2;
//                      } else {
//                          return 1;
//                      }
//                  }
//              }
//          }
//        }
//        
//
//static inline int32_t sonar_predict_tree_14(const float *features, int32_t features_length) {
//          if (features[152] < 100.80500030517578) {
//              if (features[52] < 100.79500198364258) {
//                  if (features[156] < 100.77499771118164) {
//                      if (features[154] < 100.73500061035156) {
//                          if (features[199] < 17937.0) {
//                              return 1;
//                          } else {
//                              return 2;
//                          }
//                      } else {
//                          if (features[26] < 100.76499938964844) {
//                              if (features[31] < 13747.0) {
//                                  if (features[399] < 16077.5) {
//                                      return 2;
//                                  } else {
//                                      return 1;
//                                  }
//                              } else {
//                                  return 2;
//                              }
//                          } else {
//                              if (features[12] < 100.78499984741211) {
//                                  return 0;
//                              } else {
//                                  if (features[82] < 100.78499984741211) {
//                                      return 1;
//                                  } else {
//                                      return 2;
//                                  }
//                              }
//                          }
//                      }
//                  } else {
//                      if (features[342] < 100.79500198364258) {
//                          if (features[352] < 100.7599983215332) {
//                              return 2;
//                          } else {
//                              if (features[9] < 13112.5) {
//                                  return 0;
//                              } else {
//                                  if (features[61] < 10895.0) {
//                                      return 1;
//                                  } else {
//                                      return 0;
//                                  }
//                              }
//                          }
//                      } else {
//                          if (features[27] < 3201.5) {
//                              return 0;
//                          } else {
//                              if (features[276] < 100.79500198364258) {
//                                  if (features[205] < 9313.0) {
//                                      return 2;
//                                  } else {
//                                      return 0;
//                                  }
//                              } else {
//                                  return 2;
//                              }
//                          }
//                      }
//                  }
//              } else {
//                  if (features[281] < 6329.5) {
//                      if (features[197] < 6878.0) {
//                          if (features[287] < 3368.0) {
//                              return 0;
//                          } else {
//                              return 2;
//                          }
//                      } else {
//                          return 1;
//                      }
//                  } else {
//                      if (features[37] < 922.5) {
//                          return 0;
//                      } else {
//                          if (features[129] < 8076.0) {
//                              if (features[271] < 12868.0) {
//                                  if (features[184] < 100.79500198364258) {
//                                      return 1;
//                                  } else {
//                                      return 0;
//                                  }
//                              } else {
//                                  return 2;
//                              }
//                          } else {
//                              if (features[242] < 100.78499984741211) {
//                                  if (features[355] < 14532.0) {
//                                      return 1;
//                                  } else {
//                                      return 2;
//                                  }
//                              } else {
//                                  return 2;
//                              }
//                          }
//                      }
//                  }
//              }
//          } else {
//              if (features[284] < 100.80500030517578) {
//                  if (features[129] < 14701.0) {
//                      return 1;
//                  } else {
//                      if (features[33] < 22588.0) {
//                          return 2;
//                      } else {
//                          return 0;
//                      }
//                  }
//              } else {
//                  return 1;
//              }
//          }
//        }
//        
//
//static inline int32_t sonar_predict_tree_15(const float *features, int32_t features_length) {
//          if (features[372] < 100.80500030517578) {
//              if (features[378] < 100.79500198364258) {
//                  if (features[388] < 100.76499938964844) {
//                      if (features[167] < 17520.0) {
//                          if (features[229] < 18661.0) {
//                              if (features[374] < 100.75) {
//                                  return 1;
//                              } else {
//                                  if (features[259] < 15219.0) {
//                                      return 1;
//                                  } else {
//                                      return 2;
//                                  }
//                              }
//                          } else {
//                              return 2;
//                          }
//                      } else {
//                          return 2;
//                      }
//                  } else {
//                      if (features[10] < 100.79500198364258) {
//                          if (features[399] < 13760.0) {
//                              return 0;
//                          } else {
//                              if (features[277] < 7530.5) {
//                                  return 2;
//                              } else {
//                                  return 0;
//                              }
//                          }
//                      } else {
//                          if (features[71] < 15004.0) {
//                              if (features[359] < 12310.5) {
//                                  return 0;
//                              } else {
//                                  return 1;
//                              }
//                          } else {
//                              if (features[297] < 17290.5) {
//                                  return 1;
//                              } else {
//                                  return 2;
//                              }
//                          }
//                      }
//                  }
//              } else {
//                  if (features[312] < 100.80500030517578) {
//                      if (features[257] < 6194.5) {
//                          if (features[160] < 100.79500198364258) {
//                              return 0;
//                          } else {
//                              return 2;
//                          }
//                      } else {
//                          if (features[89] < 25919.0) {
//                              return 2;
//                          } else {
//                              if (features[261] < 21574.0) {
//                                  return 0;
//                              } else {
//                                  return 2;
//                              }
//                          }
//                      }
//                  } else {
//                      return 1;
//                  }
//              }
//          } else {
//              if (features[322] < 100.80500030517578) {
//                  if (features[189] < 19875.0) {
//                      return 1;
//                  } else {
//                      return 2;
//                  }
//              } else {
//                  if (features[68] < 100.80500030517578) {
//                      if (features[283] < 21518.0) {
//                          if (features[91] < 13404.5) {
//                              return 1;
//                          } else {
//                              return 2;
//                          }
//                      } else {
//                          return 1;
//                      }
//                  } else {
//                      return 1;
//                  }
//              }
//          }
//        }
//        
//
//static inline int32_t sonar_predict_tree_16(const float *features, int32_t features_length) {
//          if (features[294] < 100.80500030517578) {
//              if (features[390] < 100.79500198364258) {
//                  if (features[298] < 100.75500106811523) {
//                      if (features[337] < 16377.5) {
//                          if (features[359] < 10209.0) {
//                              return 2;
//                          } else {
//                              return 1;
//                          }
//                      } else {
//                          return 2;
//                      }
//                  } else {
//                      if (features[22] < 100.79500198364258) {
//                          if (features[392] < 100.7599983215332) {
//                              if (features[81] < 17643.0) {
//                                  return 1;
//                              } else {
//                                  return 2;
//                              }
//                          } else {
//                              if (features[219] < 6783.5) {
//                                  if (features[25] < 11536.0) {
//                                      if (features[17] < 10870.0) {
//                                          return 0;
//                                      } else {
//                                          if (features[281] < 5291.5) {
//                                              return 2;
//                                          } else {
//                                              return 0;
//                                          }
//                                      }
//                                  } else {
//                                      return 1;
//                                  }
//                              } else {
//                                  return 0;
//                              }
//                          }
//                      } else {
//                          if (features[127] < 15333.0) {
//                              if (features[385] < 11667.5) {
//                                  if (features[47] < 11955.5) {
//                                      return 0;
//                                  } else {
//                                      return 2;
//                                  }
//                              } else {
//                                  if (features[296] < 100.79500198364258) {
//                                      if (features[103] < 7308.5) {
//                                          return 2;
//                                      } else {
//                                          return 1;
//                                      }
//                                  } else {
//                                      return 0;
//                                  }
//                              }
//                          } else {
//                              return 2;
//                          }
//                      }
//                  }
//              } else {
//                  if (features[86] < 100.7400016784668) {
//                      return 1;
//                  } else {
//                      if (features[385] < 4588.0) {
//                          return 0;
//                      } else {
//                          if (features[395] < 6093.5) {
//                              if (features[208] < 100.79500198364258) {
//                                  return 0;
//                              } else {
//                                  return 2;
//                              }
//                          } else {
//                              if (features[93] < 3940.5) {
//                                  if (features[143] < 15438.0) {
//                                      return 1;
//                                  } else {
//                                      return 2;
//                                  }
//                              } else {
//                                  return 2;
//                              }
//                          }
//                      }
//                  }
//              }
//          } else {
//              if (features[398] < 100.80500030517578) {
//                  if (features[75] < 7440.5) {
//                      return 1;
//                  } else {
//                      return 2;
//                  }
//              } else {
//                  return 1;
//              }
//          }
//        }
//        
//
//static inline int32_t sonar_predict_tree_17(const float *features, int32_t features_length) {
//          if (features[292] < 100.80500030517578) {
//              if (features[374] < 100.79500198364258) {
//                  if (features[392] < 100.76499938964844) {
//                      if (features[77] < 16598.5) {
//                          if (features[201] < 17659.0) {
//                              return 1;
//                          } else {
//                              if (features[152] < 100.75) {
//                                  return 1;
//                              } else {
//                                  return 2;
//                              }
//                          }
//                      } else {
//                          if (features[137] < 16895.0) {
//                              if (features[185] < 15248.5) {
//                                  return 2;
//                              } else {
//                                  return 1;
//                              }
//                          } else {
//                              return 2;
//                          }
//                      }
//                  } else {
//                      if (features[120] < 100.79500198364258) {
//                          if (features[92] < 100.75) {
//                              if (features[396] < 100.77499771118164) {
//                                  return 2;
//                              } else {
//                                  return 1;
//                              }
//                          } else {
//                              if (features[367] < 14442.5) {
//                                  return 0;
//                              } else {
//                                  if (features[223] < 6285.0) {
//                                      return 2;
//                                  } else {
//                                      return 0;
//                                  }
//                              }
//                          }
//                      } else {
//                          if (features[3] < 12065.0) {
//                              if (features[20] < 100.80500030517578) {
//                                  return 0;
//                              } else {
//                                  return 1;
//                              }
//                          } else {
//                              return 2;
//                          }
//                      }
//                  }
//              } else {
//                  if (features[110] < 100.71999740600586) {
//                      return 1;
//                  } else {
//                      if (features[265] < 4593.0) {
//                          return 0;
//                      } else {
//                          if (features[91] < 25919.0) {
//                              if (features[3] < 5097.5) {
//                                  if (features[108] < 100.80500030517578) {
//                                      return 2;
//                                  } else {
//                                      return 1;
//                                  }
//                              } else {
//                                  return 2;
//                              }
//                          } else {
//                              return 0;
//                          }
//                      }
//                  }
//              }
//          } else {
//              if (features[170] < 100.80500030517578) {
//                  if (features[281] < 25830.0) {
//                      return 2;
//                  } else {
//                      return 1;
//                  }
//              } else {
//                  return 1;
//              }
//          }
//        }
//        
//
//static inline int32_t sonar_predict_tree_18(const float *features, int32_t features_length) {
//          if (features[362] < 100.80500030517578) {
//              if (features[356] < 100.79500198364258) {
//                  if (features[262] < 100.77499771118164) {
//                      if (features[255] < 15693.5) {
//                          if (features[235] < 19534.0) {
//                              if (features[277] < 9568.5) {
//                                  return 2;
//                              } else {
//                                  return 1;
//                              }
//                          } else {
//                              return 2;
//                          }
//                      } else {
//                          if (features[205] < 16580.0) {
//                              return 1;
//                          } else {
//                              if (features[357] < 14365.0) {
//                                  return 1;
//                              } else {
//                                  if (features[275] < 22210.0) {
//                                      return 2;
//                                  } else {
//                                      return 0;
//                                  }
//                              }
//                          }
//                      }
//                  } else {
//                      if (features[46] < 100.79500198364258) {
//                          if (features[245] < 6166.5) {
//                              if (features[159] < 8089.5) {
//                                  if (features[301] < 7795.0) {
//                                      return 0;
//                                  } else {
//                                      if (features[85] < 8856.5) {
//                                          return 0;
//                                      } else {
//                                          return 2;
//                                      }
//                                  }
//                              } else {
//                                  return 1;
//                              }
//                          } else {
//                              return 0;
//                          }
//                      } else {
//                          if (features[307] < 17290.5) {
//                              if (features[112] < 100.80500030517578) {
//                                  return 0;
//                              } else {
//                                  return 1;
//                              }
//                          } else {
